-6.533977,0.777897,0.453451,-1.847255,0.218374,-4.675765,0.988420,0.554791,1.046052,0.531864,-0.083437,-0.208470,-7.516496,-3.034313,-0.950100,0.051169,-0.123508,7.106103,0.637920,-0.921611,-2.807311,-1.097039,-0.584141,0.719403,0.454755,-0.177745,-2.410978,-0.469055,1.853114,0.494411,-1.399640,-0.624361,0.384263,2.894132,-3.430458,-0.812395,-0.705303,-0.759081,-2.338719,-3.286376,1.921268,-2.139302,-0.804917,-0.515560,-0.360527,3.002594,-1.966175,-1.250164,-0.332628,-0.319011,-0.519496,-0.492052,-3.941876,1.444769,0.714128,-0.187770,-0.488684,3.100573,0.887868,0.717247,5.411857,-2.289854,-1.056719,-0.784837,-0.121541,-4.704359,-2.878425,-1.096524,-0.059238,0.015316,0.743005,0.726260,0.256454,-2.745157,-1.326774,0.652314,0.864112,0.721890,4.013297,-1.059934,0.129852,0.376784,0.297688,2.253586,1.349057,0.074341,0.456536,-0.149514,-2.872584,1.135243,-2.320753,3.109606,-2.108348,-1.138237,-0.166369,0.152283,-1.161983,-2.110284,-1.177211,-0.153086,-0.645369,-0.584326,-12.116129,-4.572667,-2.617748,-0.266673,-0.447055,9.262765,-5.002630,-2.626994,-2.184042,-1.753307,-2.833020,1.009460,0.064855,9.975090,-1.243953,-2.650063,1.186570,0.113624,7.894387,-8.298202,-4.203532,-2.119710,-1.088874,7.963017,-8.357213,-4.345935,-1.983326,-1.027616,-0.665417,-0.554767,-0.458680,-0.554009,-7.261331,-0.532242,-0.502682,-0.657731,-0.808219,4.644950,17.474733,-9.244658,-4.679738,-2.303498,-1.109775,17.545410,-9.386617,-4.708577,-2.105828,-1.080607,-2.739504,-2.808958,1.094754,-0.596171,0.078790,-0.049519,-1.681229,1.507370,-0.788705,0.120210,-9.170428,3.272885,1.707571,0.224745,-0.122811,2.270179,3.518645,0.987652,-0.167205,-0.478426,-0.579470,-0.563632,8.392032,-4.385237,-2.153701,-0.170543,-0.426328,-7.773633,-4.469414,-2.132999,-0.498794,-0.351952,-0.064159,-2.874964,5.876055,-0.247999,-0.405832,-0.592294,-0.663978,-6.136259,-1.461256,-5.704788,-2.630292,-0.449303,-0.057683,0.227715,2.943688,-2.746316,-0.104616,0.032660,0.262353,1.668234,-1.154870,-2.182154,-0.876848,-1.427075,-0.723542,2.704781,-9.374816,-0.951974,-0.876220,0.007038,-0.201625,3.365973,0.695753,-0.712064,0.204021,0.379662,3.425619,-0.534920,7.491718,-2.376243,5.411269,4.420156,0.564937,2.100229,4.176630,-6.858665,-7.868237,4.547375,3.541188,-9.051187,-1.631372,2.705746,7.064534,5.170385,6.179910,1.697819,3.020212,4.889516,0.211964,-0.277234,0.337525,-0.548550,-0.151799,0.031967,0.130884,-0.697829,0.013660,-0.067419,-0.472364,-0.581659,-0.311847,-0.610104,-1.317154,0.575760,-0.477193,0.303035,-0.246491,0.040258,1.353057,-1.755827,4.784319,2.355230,3.156048,2.107671,4.869292,-1.867047,-2.196304,4.598726,3.326593,0.350516,4.580661,0.196019,-11.890862,5.498409,-1.067276,3.250865,0.294966,3.073272,-1.586625,-0.716134,-1.210315,-1.558755,0.327291,2.203026,-1.247654,-8.073815,2.402464,-0.976920,-0.870028,-0.513338,-0.492916,-3.959098,-0.141272,-0.508806,0.170654,1.402113,-5.176906,-1.105581,-0.136238,-1.316486,0.647908,-0.718036,1.141033,1.342170,0.206671,-0.432033,0.497548,0.067025,0.510826,0.386127,-0.894501,-0.402546,-0.483232,-0.066287,-0.985009,0.618846,-0.623646,-0.065507,-0.710500,0.074542,-2.986007,-0.838553,1.023305,0.505789,-4.712783,-0.260345,-0.139941,-3.323213,0.449222,1.524311,7.966335,0.381809,-5.646811,-1.952361,-2.732928,1.278050,0.538737,-1.379097,-3.303823,0.649259,-3.242372,-2.404685,-3.335587,-1.777263,-3.873791,0.934827,0.095962,-1.487744,-1.996969,1.778981,-6.705872,-2.529797,6.114931,-1.475956,-1.597465,-2.036465,-2.481168,-1.863951,-3.266614,1.618703,-3.431381,-1.923072,-4.115804,-1.684106,-2.051454,1.053297,1.308276,-2.833380,-2.587778,0.099706,-0.427677,-2.183841,-0.965353,-2.863703,3.014748,-3.006169,-2.564886,-3.196281,-1.381908,-0.816443,-1.011062,2.363259,-0.561076,2.143111,-0.548360,-8.623425,9.021575,-0.584522,-0.624604,-0.131604,0.186801,-4.663355,0.054811,-0.212000,0.540505,-0.658766,-5.646159,-0.706812,0.812219,8.859847,0.629968,3.023387,2.743634,-7.973988,1.455093,-2.428526,3.596668,0.340903,-4.094625,-0.424838,-0.466920,2.845476,-0.209883,0.101723,1.134529,-1.355864,2.645364,0.256669,-1.704303,-0.439324,-0.250543,-1.484224,-0.612084,-0.460226,-0.909240,-1.215511,1.095921,-0.996518,-1.210701,-0.538156,-0.159651,-0.606566,0.161738,-0.531277,1.471431,-0.597152,-0.759062,-1.024586,0.216998,-1.621926,3.064038,1.358252,4.240517,0.916952,4.122103,-5.905904,-6.137904,0.925858,3.039465,1.188864,1.722419,1.676650,-4.418928,2.642326,-2.169712,2.245690,1.931539,1.133346,-1.485275,0.589825,-0.448839,-2.969985,-0.324720,0.730973,-1.490231,-2.889495,0.897262,-1.790289,-1.044538,0.050496,-0.208869,6.069394,-0.509397,-1.068879,-0.269994,-0.142683,5.351722,-1.272178,-2.735609,-0.142591,-0.178165,-1.024379,-0.731880,0.043905,0.768010,1.700059,0.663226,-1.053131,-1.391830,1.080111,0.486734,-2.004667,-2.625463,-0.841142,0.337908,-0.866612,-2.001872,-1.031165,-0.894783,0.050116,-0.503538,-0.859318,-2.532840,-0.836853,-2.901784,-2.533141,-2.070562,-3.599173,9.040663,-0.108878,-0.650661,1.810015,1.337060,-2.681228,-0.378345,8.417639,1.811970,-3.190602,1.196912,1.764354,-0.658154,1.492995,2.037494,-0.944179,2.015257,-0.389637,0.052177,1.809507,0.542301,0.145961,0.884055,-4.623119,-1.143346,1.036987,0.618672,1.563171,-4.747993,1.182821,1.783536,-2.302937,6.220755,3.050217,-0.092789,1.902747,3.937918,-5.134372,-5.799875,6.384242,5.773979,2.240304,-3.910038,1.664327,-7.827065,6.983325,-5.469472,5.055873,1.892542,6.035575,-0.659282,-0.345631,-0.297379,0.236858,-0.379054,-0.262032,-0.478929,-1.160295,-1.313112,-0.171758,-0.378507,-0.743368,-0.200978,-0.377339,-1.192881,-0.279802,-0.390940,-0.768530,-0.968895,-0.464984,-1.079101,-0.789343,-0.115394,-1.091547,-0.653227,0.826529,-0.096459,-0.235819,0.284726,-0.638492,0.187784,0.337014,0.116713,-0.692331,-0.301794,-0.551263,-0.133130,-0.039838,-0.848472,0.215427,1.307074,-10.643775,-0.124284,0.783847,1.489729,-0.524752,4.230416,4.755286,3.762842,-1.264282,0.337523,1.230967,-1.265828,3.466186,4.047690,0.334650,0.800719,-1.879267,0.414627,0.842009,-0.656631,11.238446,-1.538494,-3.030282,0.693792,-0.663685,-3.230394,8.693227,-1.341844,0.073762,-0.253066,0.034441,0.790227,-1.229297,-3.486702,-0.342708,-0.743545,-11.434555,-0.321241,-0.896099,-0.053482,8.268286,-0.700903,-14.721588,0.190462,-2.196628,8.775053,-5.389521,9.236073,-0.162736,0.545487,1.904081,-11.206990,0.298754,1.376929,-1.082281,-0.689300,13.399209,-0.010421,0.252145,-1.238864,3.997022,-0.457492,1.709585,2.059743,1.993609,4.003998,2.110064,1.317265,-0.549939,-12.935557,-0.860261,-0.649961,1.037685,1.806833,14.284489,-0.853768,-0.677779,-0.449164,1.466594,11.924776,-1.224820,-0.761890,0.232071,-10.380346,-1.438862,-0.696096,-1.404971,-0.875996,13.817007,0.565427,-2.136121,0.966227,-4.763459,-0.573704,1.285704,-5.068305,-0.312474,0.143592,-1.400496,2.247646,-1.051916,-0.752392,0.978226,-3.087477,-0.458189,-1.672825,-1.466492,-2.451276,-1.566176,-0.327070,0.141885,0.045123,10.862230,-1.944331,0.585098,-7.864951,-0.443915,-0.840715,-0.212037,