-3.957245,-1.710467,-0.758750,-0.430088,-0.326746,3.063866,8.619213,-0.648517,-0.353563,-0.002664,-0.339286,-0.236343,5.587010,-2.783127,-1.483650,-0.321732,0.000558,-7.428563,-2.251064,-1.315963,-0.053556,-0.242501,-2.918608,-1.711960,-1.028304,-0.493709,-0.187679,4.351580,-1.216251,-0.806861,-0.163309,-0.202421,-0.204588,-9.862153,-4.639960,-0.171374,-0.147359,-0.105715,7.271818,-5.649988,-0.400495,-4.590304,-2.088119,-1.025604,-0.503818,9.057166,-4.263942,-2.093204,-0.728241,-0.466078,-6.421382,0.795975,0.653844,-0.029854,0.403179,-6.470382,0.517292,1.321653,-0.050066,-0.379411,0.146230,1.359999,-1.080579,-0.379902,-0.231699,-0.515562,-0.599417,-1.724442,-1.277048,-0.101313,7.090802,-4.248952,-1.886964,-1.225653,-0.665050,7.825455,-4.227443,-1.576532,-1.248444,-0.672304,0.112403,-0.805957,-7.515797,1.268156,0.835590,-0.477786,-0.472962,-6.172645,1.500425,0.522887,0.616834,1.075431,0.690160,-0.339946,-0.313819,0.535206,0.578197,0.867938,-2.685624,-0.143804,-0.464487,-0.493399,-10.588540,-4.714649,-2.442025,-0.542025,-0.591003,9.695912,-4.821539,-2.274646,-0.155179,-0.217610,-0.268322,-4.755376,8.333860,-0.158980,-0.175259,-0.311657,-2.484488,-7.571264,-0.981685,3.566440,0.376064,0.240993,0.131175,-0.395723,1.102639,0.553969,0.802377,0.236332,12.883939,-6.879504,-3.780897,-1.719777,-0.898871,0.563407,-6.782115,-3.831982,-1.785354,-0.859013,-3.201535,-2.334475,-0.248677,-0.424298,0.318266,0.094119,-3.033389,-0.805744,-0.020844,0.059547,-6.881458,-1.805726,-0.247497,-0.202066,-0.111213,4.040869,-1.981262,-0.245783,-0.843001,-0.325863,0.944260,-4.434409,1.104096,0.623693,0.343590,-1.608951,-1.658380,1.553797,-0.049437,0.170689,-0.206331,-0.291573,-0.335188,0.845539,-10.653513,-0.183839,-0.196628,-0.280291,-2.205426,4.706088,-0.349880,-0.320174,-0.397112,5.785703,2.247432,-0.266258,-0.265137,-0.829101,-8.302289,2.038425,-1.462448,-10.515694,-3.915223,-1.911425,-0.941415,-0.825110,6.451161,-5.264722,-2.327571,-0.912571,1.188684,-3.738119,-1.657438,0.078978,-1.708484,1.882207,-1.491379,4.090344,-2.342666,0.315544,-2.514724,-0.710369,0.436796,-2.071236,-1.475839,-2.896303,-2.472824,-0.378689,-0.961898,-1.982610,-6.195590,6.538767,1.712657,4.765599,4.545903,1.787703,5.641132,0.519438,6.810144,-8.255420,6.271057,1.364157,-7.951979,6.431531,4.546769,4.441101,6.834463,2.150634,4.249582,6.563682,-1.413383,-1.242208,-0.821699,1.644133,5.893442,-2.804492,-2.519128,0.473289,-2.550219,-3.067042,0.214348,1.351238,-4.121381,3.991574,-2.590487,-3.832006,-4.036625,1.567218,2.395832,-2.329899,-0.256063,-0.730792,-1.123498,0.078118,3.635845,-2.790558,-1.675863,-0.835711,-1.718848,-1.132354,-1.153975,-1.514214,-1.433750,2.679216,-1.677320,-1.797139,-1.628623,-1.936840,0.786512,-1.810561,-0.272710,-0.354473,-0.690231,-0.281338,-0.805007,-1.439049,-0.736534,-1.156827,-0.642514,-0.796367,-0.821954,-0.339289,0.008531,-0.797209,-0.433770,-0.689045,-0.849732,0.104054,-0.567878,-0.494675,0.156718,0.485593,-3.606318,-2.077266,-0.101215,0.669223,-2.360975,0.221162,0.113191,3.903842,3.829099,-1.049275,1.729111,-0.122377,-1.516089,-0.642712,-0.477849,-0.996344,-2.828288,0.084537,-0.394735,-8.011419,-4.735413,-2.691061,0.128911,0.823670,-2.360751,-0.535877,2.839795,2.746337,-1.200274,-1.506067,0.687041,-0.241597,-1.486274,0.469670,1.504103,-1.054926,-2.338856,-0.469527,0.410807,-0.252330,0.312730,-5.105105,-0.004655,-1.295749,-0.230119,0.514225,-0.721402,-0.739204,-0.164172,4.471673,-0.017268,0.972746,-0.922040,0.001117,-1.033347,4.067644,-3.857523,-0.536362,-0.134756,-4.130144,-1.986709,1.192953,0.306374,-0.552361,-4.314954,0.490280,-1.328544,-6.039818,-2.081752,6.597092,3.349664,0.265283,-0.327822,-1.605250,-1.132689,6.953464,1.950179,-1.068986,-1.988826,3.118552,0.714533,1.316098,-3.050238,4.845339,3.082645,2.053880,2.897305,-2.887492,2.423682,1.037831,-2.597556,-3.845912,1.483923,2.328278,3.111554,1.208597,1.615782,2.433407,-0.128652,-0.829328,-0.549445,-0.083653,-1.276369,0.183047,0.080099,-4.543357,0.870128,1.852462,-0.054799,-0.654969,1.215424,-2.044815,-0.415178,1.553955,1.882389,-0.608087,-0.447100,-0.803898,3.571770,-2.935747,-0.601009,-1.428924,-2.870920,-1.561359,-3.453715,-2.487656,-5.097498,1.721426,-3.295070,-1.076234,0.556503,-0.148681,-1.243759,-3.987220,-5.284136,-1.294464,-0.881179,-0.740176,-0.242816,-3.690227,-2.840957,-2.701774,-0.659697,1.905623,-1.651461,1.699937,2.200098,1.541214,0.515333,-5.602103,0.361839,-0.697166,-0.061165,0.209159,0.288532,-5.014835,-0.036755,-0.326449,-1.044363,3.551377,0.888909,1.554559,-0.144258,0.418344,3.247463,0.230917,3.862492,-4.232570,3.600368,1.627605,-9.452582,0.258130,4.035522,2.174148,1.976618,2.142283,1.345178,-2.751982,1.106743,-8.213260,1.283436,-3.415742,0.786952,1.637419,5.022889,-0.096350,4.013877,2.057424,-8.957116,-2.802520,4.506682,2.361351,1.305353,2.002225,3.106284,-2.170917,-4.050843,1.864962,0.043638,-0.713858,0.053780,8.706682,-0.022159,-0.368465,-0.935681,0.119871,0.712423,0.730296,-0.335458,-8.411412,0.404639,0.218596,-0.614091,0.170491,0.210000,-8.232111,7.705610,-0.376775,-0.470027,-3.946995,-1.648891,0.198015,0.691659,0.001909,-0.793244,-1.090289,2.257954,-0.471146,-1.353233,-0.746237,1.043301,-0.821491,-0.999792,0.832918,1.281201,-0.185383,-1.545314,0.137663,-3.195685,2.827705,1.577908,1.519106,-4.729437,-1.310517,3.418997,-3.763094,2.878025,-3.795083,2.070198,0.699361,-1.812542,-8.001438,2.820770,2.624289,3.829461,0.764034,1.716728,4.673227,-0.627428,-3.339843,-1.739297,0.532984,-0.893197,-1.635141,-1.106354,0.439889,1.505699,-0.581915,-1.173195,0.581903,1.211555,-2.056304,-1.171954,-0.153108,0.368616,0.288195,0.276256,-1.050140,1.194793,-1.831026,-0.426035,-0.400822,2.868340,-9.215138,-2.478140,-1.177464,-1.492034,3.426054,-2.023252,-1.055200,2.762201,-0.588343,-3.673004,-3.980305,-1.182558,-1.169760,-0.894295,-2.515254,-0.919543,-7.865334,8.296260,4.884736,0.883363,-2.530336,-1.355105,3.668263,-1.176878,-3.719689,-0.947616,1.602866,0.368723,0.280986,-1.485489,0.667260,-0.193777,1.586585,3.159695,9.227135,8.651589,1.630706,-7.874875,-2.937222,-0.627270,0.313139,-1.585903,1.121137,0.544618,9.575906,-7.166245,-1.639450,4.573138,-2.723642,0.872583,0.625900,-2.637302,-14.947288,0.092761,-4.475769,2.254737,15.194220,-2.949174,-0.851574,0.640013,-0.257003,-1.600902,-0.269208,0.265220,-8.035675,0.667081,10.683834,0.194977,-12.896256,1.137108,-0.489020,-1.466032,-0.600890,-0.062297,-6.265811,1.178876,5.943861,-0.731054,-0.733190,-0.606267,8.185659,10.214057,0.313037,-1.834049,-1.008805,3.841680,-2.153274,5.143131,2.777073,-15.795841,-3.415501,3.653260,-4.575540,2.611707,0.306519,2.805889,-0.409660,0.925006,-0.612521,0.736340,-5.160633,1.669132,-6.349818,11.016214,-3.107780,-0.460050,-0.887404,-7.792048,-2.220582,-9.003444,14.049333,2.537748,-1.179574,2.589711,-2.919170,0.876296,-0.499693,1.239306,-1.892993,0.233355,-2.705404,-0.035668,2.719153,14.026675,1.448640,0.936538,-1.546001,-7.145209,-1.002934,-4.212770,-8.191921,-0.605320,-1.588232,0.694429,0.715026,