-6.531937,0.776338,0.451710,-1.849006,0.219565,-4.677656,0.987214,0.554788,1.047590,0.532704,-0.082592,-0.209295,-7.514987,-3.033540,-0.949082,0.051777,-0.125232,7.100993,0.633541,-0.923384,-2.811912,-1.100973,-0.584580,0.720105,0.452373,-0.178349,-2.407969,-0.469646,1.860408,0.493361,-1.400257,-0.624694,0.386514,2.896996,-3.431427,-0.810979,-0.703328,-0.760945,-2.345481,-3.284093,1.919213,-2.139496,-0.803593,-0.516466,-0.358769,2.998454,-1.966364,-1.251631,-0.327550,-0.316131,-0.517959,-0.493098,-3.936198,1.449424,0.715525,-0.188022,-0.490801,3.092152,0.882145,0.718785,5.412995,-2.290582,-1.058360,-0.787506,-0.122140,-4.703967,-2.878542,-1.100608,-0.057166,0.015893,0.744388,0.727374,0.254284,-2.751334,-1.331461,0.653884,0.864930,0.725664,4.021583,-1.061584,0.129306,0.378342,0.299392,2.254487,1.348896,0.075221,0.457963,-0.150643,-2.875582,1.136509,-2.329136,3.115780,-2.110318,-1.140400,-0.165875,0.152370,-1.164677,-2.113620,-1.180277,-0.154097,-0.644963,-0.583403,-12.112376,-4.572001,-2.616845,-0.268096,-0.446538,9.258728,-5.000799,-2.624280,-2.179269,-1.754893,-2.833186,1.013914,0.062302,9.970925,-1.245409,-2.653147,1.188095,0.114775,7.891694,-8.296746,-4.201825,-2.119173,-1.089291,7.958741,-8.354841,-4.344667,-1.981413,-1.028319,-0.663521,-0.555851,-0.458544,-0.557971,-7.257028,-0.532019,-0.501343,-0.661875,-0.808264,4.647969,17.471191,-9.243104,-4.678590,-2.303898,-1.109827,17.541344,-9.386086,-4.708122,-2.104046,-1.079747,-2.740346,-2.807145,1.093063,-0.593898,0.079992,-0.053050,-1.686203,1.511779,-0.791419,0.121703,-9.168602,3.270082,1.709751,0.226001,-0.119392,2.270570,3.514642,0.985098,-0.163969,-0.475294,-0.580235,-0.564673,8.390300,-4.386265,-2.150182,-0.170097,-0.427902,-7.766338,-4.469922,-2.128567,-0.500130,-0.349807,-0.062013,-2.874296,5.872347,-0.246271,-0.406480,-0.593164,-0.665171,-6.134455,-1.463948,-5.703106,-2.626308,-0.453662,-0.057228,0.228615,2.944996,-2.746477,-0.108232,0.032740,0.263636,1.666967,-1.153378,-2.179733,-0.876969,-1.426010,-0.724266,2.698536,-9.357752,-0.953751,-0.881596,0.005306,-0.203092,3.366959,0.697947,-0.709785,0.204940,0.384564,3.426283,-0.536319,7.492762,-2.373313,5.412950,4.420305,0.564100,2.106144,4.178193,-6.856933,-7.864530,4.545603,3.541002,-9.048994,-1.632134,2.704639,7.059341,5.169592,6.177767,1.691873,3.020712,4.889226,0.210286,-0.278746,0.335831,-0.549244,-0.153666,0.032172,0.129729,-0.696223,0.010101,-0.069564,-0.473690,-0.582960,-0.311823,-0.611490,-1.314992,0.573159,-0.478793,0.303402,-0.248032,0.037606,1.357960,-1.763052,4.776904,2.359377,3.155204,2.114156,4.862721,-1.865248,-2.195508,4.598608,3.334242,0.349026,4.576578,0.197735,-11.877759,5.493028,-1.069943,3.248068,0.295885,3.062710,-1.587874,-0.716226,-1.213757,-1.552846,0.325799,2.210711,-1.250257,-8.056025,2.388999,-0.976242,-0.872301,-0.511997,-0.492801,-3.951595,-0.142255,-0.508258,0.169142,1.402623,-5.165840,-1.105365,-0.139332,-1.310503,0.648186,-0.719986,1.132077,1.344704,0.207546,-0.436439,0.492358,0.068584,0.506322,0.387149,-0.888846,-0.403010,-0.477675,-0.067855,-0.979968,0.614665,-0.626345,-0.062472,-0.710417,0.079060,-2.982662,-0.840442,1.023718,0.504529,-4.711393,-0.261769,-0.137465,-3.322510,0.440472,1.524386,7.958917,0.379313,-5.643692,-1.948321,-2.725586,1.276226,0.535075,-1.378550,-3.301910,0.643854,-3.234314,-2.403973,-3.337134,-1.776020,-3.864434,0.939094,0.095385,-1.482818,-1.998491,1.776968,-6.701613,-2.531712,6.109827,-1.470804,-1.589934,-2.029106,-2.485607,-1.859705,-3.256106,1.612330,-3.419612,-1.921989,-4.091677,-1.678150,-2.052587,1.047288,1.308647,-2.822408,-2.567846,0.098337,-0.423707,-2.183764,-0.971216,-2.853709,3.010237,-2.994166,-2.567567,-3.187654,-1.383532,-0.816847,-1.014184,2.364967,-0.561384,2.145640,-0.546392,-8.615226,9.008770,-0.581207,-0.618355,-0.132686,0.188023,-4.660856,0.054627,-0.212189,0.542312,-0.667878,-5.641865,-0.706167,0.815615,8.852277,0.632678,3.021393,2.745898,-7.956256,1.453807,-2.437662,3.589618,0.339535,-4.087521,-0.428780,-0.465941,2.847467,-0.209255,0.099784,1.135364,-1.354047,2.643792,0.255274,-1.700970,-0.444640,-0.252558,-1.482716,-0.606460,-0.459577,-0.913738,-1.213203,1.092691,-0.994726,-1.210924,-0.539360,-0.161107,-0.602689,0.157028,-0.531977,1.469016,-0.594405,-0.756261,-1.023783,0.218295,-1.623926,3.058066,1.351829,4.236901,0.920276,4.110700,-5.901227,-6.132041,0.928678,3.033060,1.184530,1.724783,1.674749,-4.409829,2.639131,-2.159338,2.237815,1.928406,1.130646,-1.484869,0.592876,-0.452605,-2.968415,-0.320860,0.738014,-1.491568,-2.890111,0.893523,-1.787032,-1.048393,0.045563,-0.207622,6.065039,-0.507793,-1.063354,-0.268973,-0.141465,5.345593,-1.272483,-2.728542,-0.139447,-0.177453,-1.027739,-0.729325,0.040989,0.760674,1.699720,0.657876,-1.055319,-1.392445,1.077150,0.483547,-2.004629,-2.624065,-0.842813,0.338957,-0.869617,-2.002332,-1.033219,-0.893992,0.051000,-0.503771,-0.859615,-2.534100,-0.838166,-2.897599,-2.534714,-2.072078,-3.589338,9.034813,-0.108690,-0.647642,1.812290,1.336587,-2.680197,-0.379458,8.406594,1.812868,-3.184188,1.198179,1.764375,-0.654025,1.490222,2.035079,-0.942744,2.016858,-0.396003,0.049933,1.806912,0.534986,0.145525,0.889431,-4.619232,-1.144409,1.035197,0.618250,1.566928,-4.743787,1.183423,1.782367,-2.298872,6.211540,3.046816,-0.087247,1.901263,3.936442,-5.129091,-5.797409,6.381826,5.769565,2.237135,-3.899034,1.661389,-7.817974,6.976875,-5.463586,5.050921,1.889818,6.029238,-0.659182,-0.345841,-0.297439,0.236760,-0.379121,-0.262186,-0.479140,-1.160435,-1.313372,-0.171855,-0.378537,-0.743451,-0.200990,-0.377386,-1.192880,-0.279902,-0.390845,-0.768503,-0.968980,-0.465067,-1.078342,-0.788885,-0.116323,-1.093541,-0.654613,0.822819,-0.098833,-0.239777,0.279190,-0.639315,0.183340,0.333880,0.115335,-0.690598,-0.302647,-0.551866,-0.133844,-0.042535,-0.847383,0.215017,1.310087,-10.629286,-0.124509,0.782163,1.492110,-0.528677,4.226165,4.755389,3.764601,-1.269289,0.337290,1.231912,-1.266025,3.471688,4.042030,0.336941,0.796304,-1.879637,0.414335,0.839200,-0.658752,11.225854,-1.536630,-3.028002,0.692422,-0.664241,-3.220100,8.673940,-1.345135,0.072929,-0.255413,0.029365,0.789776,-1.228837,-3.486513,-0.343280,-0.745339,-11.408257,-0.321063,-0.898774,-0.050589,8.255574,-0.697111,-14.699275,0.189578,-2.186521,8.756582,-5.367762,9.191129,-0.161414,0.548655,1.897632,-11.181084,0.302075,1.373054,-1.088832,-0.694207,13.367487,-0.009735,0.249929,-1.238848,3.997306,-0.458079,1.709994,2.058599,1.981398,4.004224,2.106512,1.319200,-0.546904,-12.909959,-0.859976,-0.647696,1.039970,1.798716,14.257999,-0.859792,-0.672141,-0.449252,1.458711,11.899026,-1.225043,-0.759818,0.236723,-10.350613,-1.437250,-0.694410,-1.409444,-0.882409,13.790304,0.567775,-2.133849,0.966663,-4.763013,-0.575936,1.283808,-5.063677,-0.315080,0.143587,-1.399746,2.251679,-1.049167,-0.751370,0.982971,-3.083362,-0.457795,-1.676690,-1.466459,-2.456955,-1.563789,-0.334433,0.141340,0.042901,10.846424,-1.944344,0.583435,-7.853222,-0.443270,-0.840305,-0.211610,