-0.951661,-1.220732,-0.627523,-9.449924,3.198097,0.047327,-1.158195,-0.527024,-9.681532,3.075548,-0.319714,0.971620,-4.768332,-1.514677,-0.471616,11.345429,1.239295,-4.864486,-1.436903,-0.519514,-0.532246,-0.677440,0.235940,-12.853123,-6.438319,-0.137110,-0.530670,-0.595049,10.260616,-6.711722,-7.422409,-1.372028,3.218508,1.137294,0.814771,-6.867499,-0.822559,3.264826,1.303130,0.775041,-0.644455,-0.678213,0.781745,-3.370461,1.842508,0.232251,-0.792393,0.852708,-3.511953,1.921848,-0.362020,-0.665197,-0.755843,-0.602422,3.610329,-0.096081,-0.625149,-0.600521,-0.646409,-4.891141,2.549435,-5.023363,-2.828388,-1.021102,-0.304529,0.996326,-2.727552,-2.851808,-1.042372,-0.278707,-1.754367,-1.264073,-1.746190,1.894153,1.248887,-0.330414,-1.134288,-1.798000,1.936674,1.042322,-5.030630,-3.001828,-2.077708,0.258348,1.086471,1.377876,-1.434639,-2.120831,0.158405,0.998359,-9.512097,3.165483,1.460111,-0.061908,-0.016396,2.086043,3.441163,1.466279,-0.207609,-0.052691,-0.275110,14.338641,-8.301696,-4.262727,-1.870364,0.439888,-0.411173,-8.297854,-4.274537,-1.909355,-0.186564,-0.369197,-0.815191,10.743910,-6.936713,0.145025,-0.428720,-0.076404,-13.198575,-6.782086,-0.524220,-15.055543,-7.305436,-3.752548,-1.501125,0.186889,13.104737,-7.315988,-3.762992,-1.686274,3.213315,-6.014610,-2.743862,-0.724994,-0.462223,6.608450,-6.182839,-2.746067,-0.585176,-0.535242,-0.985192,-0.996504,0.519589,0.475718,-4.409164,0.312040,-0.874729,0.513510,0.340916,-3.980848,-1.525250,4.918207,-2.696464,-1.213699,-0.282803,-0.056241,-4.693127,-2.665660,-1.084279,-0.239678,-2.540179,-2.005966,1.695776,0.445513,0.394342,5.252667,-2.766905,1.660666,0.382437,0.271394,0.714270,5.876821,0.219098,-0.525355,-1.144943,0.747716,5.519581,0.163644,-0.501756,-1.017241,15.442880,-8.975878,-3.555567,-1.961069,-1.047067,15.917600,-9.021339,-3.545356,-2.004882,-0.946092,-0.383728,-0.899744,-0.565506,-0.685595,-6.275255,-0.153684,-0.782312,-0.795793,-0.547408,4.087598,1.235233,3.311063,1.869949,-0.385751,-1.390893,1.543064,5.968418,-2.021564,3.168720,-0.798368,4.057342,1.849047,4.085465,-1.108429,0.954601,1.822557,-3.752654,-5.679684,-1.609261,1.635353,-1.395478,1.504352,-1.758087,0.540271,-1.875971,-0.956096,-0.896372,-3.182835,-2.770779,-0.500114,4.006567,-1.688256,-0.269633,-0.620882,-3.047871,-3.173148,2.107415,1.471430,-1.002829,-0.964655,-5.995253,-0.981997,-6.409438,0.972613,1.386358,-1.069968,0.871612,-2.968048,-0.089688,-0.751603,1.312025,-6.488640,-0.364367,0.321226,1.318799,-1.443879,2.675403,-0.241306,-0.292537,-1.195802,-0.825502,1.437640,-0.014134,-2.539029,-0.550384,-0.232426,1.226116,-1.258905,-2.448903,-2.519019,-0.974751,-0.043255,-1.712250,3.925026,-1.974351,-0.879145,1.523869,2.189672,-4.132120,-0.214108,9.172004,-1.283020,7.114228,-3.124824,-1.676895,2.764157,10.932416,1.825203,7.740523,-1.613364,-1.372545,7.066227,-6.088886,4.798231,4.761874,-0.525324,-5.208088,-8.214643,-4.593648,2.890272,2.688688,-3.470200,3.210786,2.230156,1.115710,1.578944,-1.597397,2.768727,2.435728,-2.041610,1.774113,3.252925,6.447672,-1.877250,3.530094,5.202033,-0.270721,-8.408458,-7.322443,1.739803,3.803389,2.832574,3.000854,1.509372,0.357061,1.621599,-0.434221,1.278286,3.330785,-2.970863,3.682008,2.996900,2.300351,2.500484,3.687055,0.889994,-0.694735,-7.881011,-1.774153,1.739458,-4.060468,5.278475,-3.962405,-0.099999,0.725700,-1.809423,0.601033,-2.564605,-2.270368,-1.309441,-2.805522,-3.861590,-6.691595,1.921230,-2.424265,-4.072667,-0.046331,9.424343,-12.795075,-1.774184,-0.310374,-0.436986,-0.147862,0.595971,0.408972,-0.110391,-1.237993,-0.766478,-1.298345,0.759948,1.411620,-0.347539,0.384609,-0.756389,0.661577,-1.840383,0.670201,0.753271,-1.399607,0.038406,0.832422,-0.879169,-0.129618,0.371526,-2.590873,-0.444249,-0.987520,-2.791433,-1.761920,-0.798385,2.061374,-0.187199,0.085935,-1.204807,-1.194253,-3.317640,0.275028,1.550212,-2.821486,-0.412968,0.824461,-2.106087,0.494907,-1.687321,0.809596,1.296693,2.516246,0.949457,0.887195,-3.235749,1.016964,0.794267,-0.468200,0.151595,1.372060,2.144058,-1.269973,-0.280017,1.567822,0.952892,-1.372170,1.539546,-2.997026,-2.932814,-3.594865,-2.199229,-1.001331,-6.064978,-3.428844,7.055216,-9.557931,-2.997862,-1.439362,-1.091321,-4.543495,-4.444446,-4.736233,3.701369,-1.317743,-2.386322,-1.682083,-1.921693,-2.155987,-0.416568,-2.639368,-1.058813,-5.663661,-2.358459,-3.087082,1.045135,7.182874,-2.043454,5.402978,-1.248657,-2.937597,-1.147261,1.412579,1.432721,0.343056,-0.938628,-2.852006,2.961787,-4.395111,-6.941205,-1.177882,-1.286041,-2.514337,-3.091997,-2.024337,-0.898536,-2.457634,-4.264469,-5.780895,-8.140746,-1.896491,-3.923458,-0.590113,1.098167,6.303159,-1.604839,2.910366,-6.562761,3.847258,5.320516,1.148564,2.518625,-1.231037,2.508862,3.731834,5.570623,2.506116,3.805535,6.993462,-1.889501,3.105924,5.467481,-4.405833,-8.499658,3.811877,2.501208,-1.044480,-0.779517,-1.614166,-0.160912,0.234264,0.173625,-0.775378,-0.902862,-0.153623,0.346184,-0.471610,-1.002317,0.473985,-0.373272,0.138231,0.484563,-0.629880,-1.072968,2.950533,0.064071,-3.298060,0.827071,-1.932479,-4.596088,-0.039639,-0.848915,-0.920770,-3.314754,-0.648041,2.646461,-0.790354,-1.624130,2.400245,3.572174,-1.366406,2.001465,-0.695447,1.041999,-1.252314,-0.695183,1.012855,-0.676389,-0.464778,-0.848909,-3.939867,7.540242,-2.933949,-0.945951,-0.516345,0.347612,-0.860591,0.094471,-1.562589,0.121326,-5.768054,-1.249062,1.153540,-0.766969,-0.532503,7.513943,7.767899,-0.461375,7.317113,0.152824,-5.319821,-5.653415,-0.826616,2.415323,0.206006,-0.552789,-0.841788,7.737595,-1.258936,0.010499,-6.069087,-0.591578,1.097254,0.047472,-0.156179,-4.995570,-0.638623,-0.135123,0.031084,-0.503958,-0.912814,-0.161757,-0.789661,-0.516468,-0.545456,-0.275310,0.333685,-0.618079,-0.658286,-0.897937,0.127458,0.076282,-0.742975,-0.950861,-0.836718,0.423312,-0.550417,2.850342,-1.187432,6.498800,0.250683,-2.138513,-0.519264,3.565523,-0.872923,-0.179215,-0.149146,0.578136,-1.282730,3.957292,-10.902074,-0.414017,1.954769,1.319925,0.973285,-0.141312,1.024155,2.920322,0.197714,-3.072559,1.589492,-14.033675,-4.000371,-3.666814,-1.935834,-0.532239,-1.157120,-1.234597,-1.088975,8.610689,12.384250,0.261233,-1.648380,-0.862263,-0.869075,-0.396202,-2.826735,-1.071529,-0.198813,2.930625,-13.216271,2.852227,1.238868,-8.906727,-1.269163,-0.036104,2.317815,13.690923,0.027021,-7.175849,3.502302,2.062297,5.076232,-0.134642,-0.155676,0.053733,-10.009944,6.459858,8.025289,-1.284845,16.711248,-1.272605,-8.731762,-12.644421,2.316453,5.542215,-3.972977,-4.125999,10.654654,-11.889945,-2.493368,1.724558,-0.467574,1.155067,-0.303423,0.835329,-2.674000,-0.895710,-5.903819,-0.351209,-1.024688,-3.122854,-0.421569,-4.208528,-1.119535,1.567000,-2.275079,1.324102,0.524277,-1.739838,-2.464075,-2.534289,-4.715674,0.768408,16.411964,-0.271946,0.079751,-1.627130,-4.238603,-0.560538,-1.588464,-1.306671,-0.422568,-0.434723,-0.779404,-0.294261,-0.491008,-0.840574,-1.047584,0.351927,-1.385534,-1.251071,-1.907557,14.866219,-4.606163,0.290682,